/*
 * ===================================================================
 *  TS 26.104
 *  REL-5 V5.4.0 2004-03
 *  REL-6 V6.1.0 2004-03
 *  3GPP AMR Floating-point Speech Codec
 * ===================================================================
 *
 */

/*
 * rom_enc.h
 *
 *
 * Project:
 *    AMR Floating-Point Codec
 *
 * Contains:
 *    This file contains all the tables needed by AMR encoder functions.
 *
 */
#ifndef _ROM_ENC_H_
#define _ROM_ENC_H_


#include "amr_typedef_enc.h"


/*  Q15  */
static const Word16 gamma1[M] =
{
   30802, 28954, 27217, 25584, 24049,
   22606, 21250, 19975, 18777, 17650
};

/* gamma1 differs for the 12k2 coder */
static const Word16 gamma1_12k2[M] =
{
    29491, 26542, 23888, 21499, 19349,
    17414, 15672, 14105, 12694, 11425
};

static const Word16 gamma2[M] =
{
   19661, 11797, 7078, 4247, 2548,
   1529, 917, 550, 330, 198
};

#if 0
static const Float32 gamma1[M] =
{
   0.9400024414063F,
   0.8836059570313F,
   0.8305969238281F,
   0.78076171875F,
   0.7339172363281F,
   0.6898803710938F,
   0.6484985351563F,
   0.6095886230469F,
   0.5730285644531F,
   0.5386352539063F
};

/*
 *  gamma1 for the 12k2 coder
 */
static const Float32 gamma1_12k2[M] =
{
   0.8999938964844F,
   0.8099975585938F,
   0.72900390625F,
   0.6560974121094F,
   0.5904846191406F,
   0.5314331054688F,
   0.478271484375F,
   0.4304504394531F,
   0.3873901367188F,
   0.3486633300781F
};
static const Float32 gamma2[M] =
{
   0.6000061035156F,
   0.3600158691406F,
   0.2160034179688F,
   0.1296081542969F,
   0.0777587890625F,
   0.04666137695313F,
   0.02798461914063F,
   0.01678466796875F,
   0.01007080078125F,
   0.00604248046875F
};
#endif

/* 1/6 resolution interpolation filter  (-3 dB at 3600 Hz)
 * Note: the 1/3 resolution filter is simply a subsampled
 *       version of the 1/6 resolution filter, i.e. it uses
 *       every second coefficient:
 *
 *       inter_6(1/3)[k] = inter_6(1/3)[2*k], 0 <= k <= 3*L_INTER10
 */
#if 0
static Float32 b60[UP_SAMP_MAX*(L_INTERPOL-1)+1] =
{
   0.898529F,
   0.865051F,
   0.769257F,
   0.624054F,
   0.448639F,
   0.265289F,
   0.0959167F,
   - 0.0412598F,
   - 0.134338F,
   - 0.178986F,
   - 0.178528F,
   - 0.142609F,
   - 0.0849304F,
   - 0.0205078F,
   0.0369568F,
   0.0773926F,
   0.0955200F,
   0.0912781F,
   0.0689392F,
   0.0357056F,
   0.000000F,
   - 0.0305481F,
   - 0.0504150F,
   - 0.0570068F,
   - 0.0508423F,
   - 0.0350037F,
   - 0.0141602F,
   0.00665283F,
   0.0230713F,
   0.0323486F,
   0.0335388F,
   0.0275879F,
   0.0167847F,
   0.00411987F,
   - 0.00747681F,
   - 0.0156860F,
   - 0.0193481F,
   - 0.0183716F,
   - 0.0137634F,
   - 0.00704956F,
   0.000000F,
   0.00582886F,
   0.00939941F,
   0.0103760F,
   0.00903320F,
   0.00604248F,
   0.00238037F,
   - 0.00109863F,
   - 0.00366211F,
   - 0.00497437F,
   - 0.00503540F,
   - 0.00402832F,
   - 0.00241089F,
   - 0.000579834F,
   0.00103760F,
   0.00222778F,
   0.00277710F,
   0.00271606F,
   0.00213623F,
   0.00115967F,
   0.000000F
};
#endif



static const Word8 startPos1[2] =
   {
      1,
      3
   };

static const Word8 startPos2[4] =
   {
      0,
      1,
      2,
      4
   };

static const Word8 startPos[2 * 4 * 2] =
   {
      0,
      2,
      0,
      3,
      0,
      2,
      0,
      3,
      1,
      3,
      2,
      4,
      1,
      4,
      1,
      4
   };


#define NB_QUA_CODE 32
static const Float32 gain_factor[NB_QUA_CODE] =
{
/* gain factor (g_fac) */
   0.0776367F,
   0.100586F,
   0.130859F,
   0.170410F,
   0.204590F,
   0.235352F,
   0.270508F,
   0.311035F,
   0.357910F,
   0.411133F,
   0.473145F,
   0.543945F,
   0.625488F,
   0.719238F,
   0.827148F,
   0.951172F,
   1.09424F,
   1.25830F,
   1.44678F,
   1.66406F,
   1.91357F,
   2.20068F,
   2.53076F,
   2.91016F,
   3.34717F,
   3.84912F,
   4.42627F,
   5.09033F,
   6.10840F,
   7.94092F,
   10.3232F,
   13.4204F
};






static const Word8 gray[8] =
   {
      0,
      1,
      3,
      2,
      6,
      4,
      5,
      7
   };

/*
 * grid[0] = 1.0;
 * grid[61] = -1.0;
 * for (i = 1; i < 61; i++)
 *    grid[i] = (Float32)cos((6.283185307*i)/(2.0*60)); Q15
 */

#define grid_points 60

static const Word16 grid[grid_points + 1] =
{
    32760, 32723, 32588, 32364, 32051, 31651,
    31164, 30591, 29935, 29196, 28377, 27481,
    26509, 25465, 24351, 23170, 21926, 20621,
    19260, 17846, 16384, 14876, 13327, 11743,
    10125, 8480, 6812, 5126, 3425, 1714,
    0, -1714, -3425, -5126, -6812, -8480,
    -10125, -11743, -13327, -14876, -16384, -17846,
    -19260, -20621, -21926, -23170, -24351, -25465,
    -26509, -27481, -28377, -29196, -29935, -30591,
    -31164, -31651, -32051, -32364, -32588, -32723,
    -32760
};



#define FIR_SIZE     (UP_SAMP_MAX*L_INTER_SRCH+1)

/* 1/6 resolution interpolation filter  (-3 dB at 3600 Hz) */
/* Note: The IS641 (7.4) 1/3 resolution filter is simply a subsampled
         version of the 1/6 resolution filter, i.e. it uses
         every second coefficient:

         inter_3[k] = inter_6[2*k], 0 <= k <= 3*L_INTER_SRCH
         Q15 George
 */

static const Word16 b24[FIR_SIZE] =
{
    29519,
    28316, 24906, 19838, 13896, 7945, 2755,
    -1127, -3459, -4304, -3969, -2899, -1561,
    -336, 534, 970, 1023, 823, 516,
    220, 0, -131, -194, -215, 0
};

#if 0
static const Float32 b24[UP_SAMP_MAX*L_INTER_SRCH+1] =
{
   0.900848F,
   0.864136F,
   0.760071F,
   0.605408F,
   0.424072F,
   0.242462F,
   0.0840759F,
   - 0.0343933F,
   - 0.105560F,
   - 0.131348F,
   - 0.121124F,
   - 0.0884705F,
   - 0.0476379F,
   - 0.0102539F,
   0.0162964F,
   0.0296021F,
   0.0312195F,
   0.0251160F,
   0.0157471F,
   0.00671387F,
   0.000000F,
   - 0.00399780F,
   - 0.00592041F,
   - 0.00656128F,
   0.000000F
};
#endif
/*
 * Exponential Window coefficients used to weight the autocorrelation
 * coefficients for 60 Hz bandwidth expansion of high pitched voice
 * before Levinson-Durbin recursion to compute the LPC coefficients.
 *
 * lagwindow[i] =  exp( -0.5*(2*pi*F0*(i+1)/Fs)^2 ); i = 0,...,9
 * F0 = 60 Hz, Fs = 8000 Hz

static Float32 lag_wind[M] =
{
   0.99889028F,
   0.99556851F,
   0.99005681F,
   0.98239160F,
   0.97262347F,
   0.96081644F,
   0.94704735F,
   0.93140495F,
   0.91398895F,
   0.89490914F
};*/

/* initialization table for lsp history in DTX
static const Float32 lsp_init_data[M] =
   {
      0.9595F,
      0.8413F,
      0.6549F,
      0.4154F,
      0.1423F,
      - 0.1423F,
      - 0.4154F,
      - 0.6549F,
      - 0.8413F,
      - 0.9595F
   };*/

static const Word32 lsp_init_data[M] = {30000, 26000, 21000, 15000, 8000,
					0, -8000, -15000, -21000, -26000};




#if 0
/* initalization table for MA predictor in dtx mode */
static const Float32 past_rq_init[80] =
{
-62.9883F, -77.6367F, -107.178F, -154.785F, -160.156F, -188.721F, -173.584F, -122.559F,
-65.4297F, -47.1191F, -0.488281F, 30.5176F, 29.7852F, -9.52148F, -2.19727F, 25.6348F,
31.4941F, 69.0918F, 90.8203F, 140.381F, -67.627F, -79.1016F, -48.0957F, -118.896F,
-108.643F, -88.3789F, -71.2891F, -6.5918F, 43.2129F, 132.568F, 83.4961F, 126.221F,
125.977F, 31.7383F, 6.5918F, -25.3906F, -29.2969F, -34.1797F, -18.0664F, -13.6719F,
-137.695F, -230.225F, -371.094F, -235.596F, -198.73F, -128.418F, -78.6133F, -0.488281F,
38.8184F, 160.4F, -76.1719F, -69.3359F, -94.2383F, -145.752F, -120.361F, -128.418F,
-102.051F, -55.9082F, 25.6348F, 109.619F, -135.986F, -212.402F, -262.451F, -224.365F,
-231.934F, -183.594F, -173.096F, -77.1484F, 15.1367F, 118.652F, -76.6602F, -46.6309F,
-49.5605F, -80.5664F, -39.0625F, -25.1465F, -12.4512F, 31.9824F, 82.5195F, 125.732F
};


/* LSF means ->normalize frequency domain */

static const Float32 mean_lsf_3[10] =
{
   377.441F,
	554.688F,
	922.363F,
	1339.84F,
	1702.15F,
	2046.39F,
	2452.88F,
	2741.46F,
	3116.70F,
	3348.14F,
};

static const Float32 mean_lsf_5[10] =
{
   337.891F,
	507.080F,
	834.961F,
	1247.07F,
	1646.00F,
	1982.91F,
	2407.96F,
	2708.01F,
	3104.00F,
	3344.97F,
};



/* LSF prediction factors (not in MR122) */
static const Float32 pred_fac[10] =
{
   0.291626F,
   0.328644F,
   0.383636F,
   0.405640F,
   0.438873F,
   0.355560F,
   0.323120F,
   0.298065F,
   0.262238F,
   0.197876F
};

#endif

/* codebooks from IS641 */
#define DICO1_SIZE_3  256
#define DICO2_SIZE_3  512
#define DICO3_SIZE_3  512


#if 0
#define MR795_1_SIZE  512

/* first codebook for MR795 */
static const Float32 mr795_1_lsf[] =
{
   -217.285F,
   -378.418F,
   -620.361F,
   -199.951F,
   -236.816F,
   42.7246F,
   -201.660F,
   -301.270F,
   -186.035F,
   -146.240F,
   -5.37109F,
   154.785F,
   -197.998F,
   -240.967F,
   -220.215F,
   -78.8574F,
   49.5605F,
   6.34766F,
   -93.5059F,
   -57.3730F,
   -190.674F,
   -97.4121F,
   308.105F,
   221.191F,
   -227.539F,
   -341.553F,
   -336.914F,
   -152.344F,
   22.7051F,
   21.2402F,
   -101.074F,
   -131.592F,
   -168.701F,
   9.03320F,
   154.541F,
   124.512F,
   -94.4824F,
   -116.211F,
   -324.707F,
   97.4121F,
   16.1133F,
   64.2090F,
   -99.3652F,
   -11.9629F,
   -81.7871F,
   -101.807F,
   254.150F,
   455.322F,
   -190.186F,
   -265.869F,
   -351.563F,
   -182.129F,
   -209.473F,
   203.125F,
   -141.846F,
   -185.303F,
   -90.5762F,
   -164.307F,
   -123.535F,
   509.766F,
   -136.719F,
   -154.785F,
   -287.842F,
   66.1621F,
   58.8379F,
   3.41797F,
   -106.934F,
   -59.5703F,
   -96.9238F,
   113.037F,
   293.457F,
   255.615F,
   -147.949F,
   -194.580F,
   -351.074F,
   -12.4512F,
   -78.8574F,
   117.432F,
   -54.6875F,
   -142.578F,
   -128.662F,
   120.605F,
   215.088F,
   166.504F,
   -105.713F,
   -74.7070F,
   -244.629F,
   135.254F,
   160.889F,
   54.1992F,
   41.7480F,
   -39.0625F,
   -86.1816F,
   166.260F,
   438.965F,
   382.080F,
   -208.008F,
   -288.330F,
   -413.818F,
   -82.0313F,
   -162.598F,
   27.8320F,
   -141.846F,
   -184.570F,
   -181.641F,
   -47.6074F,
   91.5527F,
   121.338F,
   -113.525F,
   -196.289F,
   -268.066F,
   37.5977F,
   68.8477F,
   -31.9824F,
   -12.2070F,
   -46.6309F,
   -175.537F,
   78.8574F,
   178.711F,
   376.465F,
   -176.270F,
   -199.951F,
   -342.773F,
   25.6348F,
   -61.0352F,
   45.1660F,
   -43.4570F,
   -122.559F,
   -181.152F,
   78.3691F,
   124.512F,
   271.240F,
   -78.8574F,
   -138.428F,
   -235.840F,
   31.0059F,
   118.164F,
   82.5195F,
   -39.0625F,
   12.6953F,
   -82.5195F,
   178.711F,
   333.740F,
   379.395F,
   -152.832F,
   -195.801F,
   -414.063F,
   -69.8242F,
   -143.066F,
   165.039F,
   -169.678F,
   -83.7402F,
   -90.3320F,
   -119.629F,
   72.0215F,
   462.158F,
   -153.809F,
   -140.137F,
   -247.559F,
   -19.5313F,
   157.471F,
   -16.8457F,
   -1.46484F,
   -77.6367F,
   -88.8672F,
   190.918F,
   354.004F,
   253.418F,
   -76.4160F,
   -178.955F,
   -340.576F,
   29.2969F,
   14.6484F,
   116.455F,
   -64.4531F,
   -142.822F,
   -30.0293F,
   173.584F,
   303.955F,
   154.541F,
   -22.2168F,
   -86.6699F,
   -248.047F,
   188.232F,
   185.059F,
   63.7207F,
   61.7676F,
   19.7754F,
   -115.723F,
   227.051F,
   540.771F,
   419.922F,
   -197.266F,
   -268.311F,
   -469.971F,
   -136.719F,
   -190.918F,
   41.2598F,
   -196.289F,
   -262.207F,
   -45.8984F,
   -152.832F,
   -13.4277F,
   343.018F,
   -169.434F,
   -174.805F,
   -291.504F,
   -161.133F,
   86.4258F,
   80.3223F,
   -125.488F,
   -13.4277F,
   -132.568F,
   89.3555F,
   252.197F,
   288.574F,
   -160.645F,
   -234.131F,
   -331.299F,
   -13.4277F,
   -44.9219F,
   22.7051F,
   -147.705F,
   -69.8242F,
   -161.621F,
   98.6328F,
   109.619F,
   201.904F,
   -69.8242F,
   -85.4492F,
   -308.350F,
   153.320F,
   74.7070F,
   55.4199F,
   -3.90625F,
   35.8887F,
   -152.100F,
   45.4102F,
   225.342F,
   523.926F,
   -164.551F,
   -217.285F,
   -392.090F,
   -108.154F,
   -55.6641F,
   82.7637F,
   -90.0879F,
   -192.871F,
   -99.8535F,
   56.3965F,
   20.9961F,
   358.643F,
   -109.375F,
   -141.846F,
   -259.033F,
   145.020F,
   109.863F,
   -43.2129F,
   -30.2734F,
   -41.5039F,
   -109.131F,
   163.818F,
   282.959F,
   342.773F,
   -116.211F,
   -162.842F,
   -368.896F,
   -18.7988F,
   -33.6914F,
   174.805F,
   -43.2129F,
   -90.8203F,
   -93.0176F,
   110.107F,
   228.027F,
   223.389F,
   -61.0352F,
   -105.469F,
   -200.684F,
   66.4063F,
   202.148F,
   108.887F,
   6.34766F,
   4.63867F,
   -7.56836F,
   170.410F,
   413.086F,
   529.297F,
   -157.715F,
   -238.525F,
   -469.727F,
   -43.7012F,
   -115.479F,
   65.4297F,
   -92.5293F,
   -181.885F,
   -168.701F,
   2.68555F,
   31.0059F,
   252.197F,
   -119.141F,
   -223.877F,
   -201.416F,
   14.8926F,
   78.8574F,
   32.9590F,
   35.8887F,
   -35.4004F,
   -167.480F,
   167.236F,
   191.895F,
   410.645F,
   -123.535F,
   -207.031F,
   -316.650F,
   8.54492F,
   21.9727F,
   54.1992F,
   -5.61523F,
   -84.4727F,
   -163.574F,
   111.084F,
   144.287F,
   314.209F,
   -49.5605F,
   -144.775F,
   -265.137F,
   159.180F,
   85.9375F,
   106.689F,
   9.52148F,
   15.3809F,
   -111.572F,
   205.322F,
   308.838F,
   513.916F,
   -126.953F,
   -215.332F,
   -386.719F,
   -80.0781F,
   -173.584F,
   346.924F,
   -145.508F,
   -83.4961F,
   -17.0898F,
   51.0254F,
   42.2363F,
   470.703F,
   -103.271F,
   -145.996F,
   -224.854F,
   102.783F,
   147.705F,
   -9.27734F,
   -0.488281F,
   -59.8145F,
   -31.0059F,
   218.750F,
   480.713F,
   277.100F,
   -92.5293F,
   -126.465F,
   -385.498F,
   42.2363F,
   28.8086F,
   183.838F,
   -13.4277F,
   -93.0176F,
   -12.6953F,
   240.479F,
   249.268F,
   183.838F,
   -0.488281F,
   -71.0449F,
   -217.529F,
   183.838F,
   242.188F,
   103.271F,
   64.4531F,
   31.9824F,
   -47.8516F,
   218.506F,
   555.176F,
   620.850F,
   -155.029F,
   -265.625F,
   -610.107F,
   -129.150F,
   -239.746F,
   128.418F,
   -186.523F,
   -202.637F,
   -133.789F,
   -106.445F,
   77.1484F,
   146.240F,
   -164.795F,
   -229.492F,
   -182.129F,
   -13.9160F,
   57.6172F,
   -2.68555F,
   -49.0723F,
   -19.7754F,
   -194.824F,
   3.90625F,
   206.299F,
   380.371F,
   -179.932F,
   -240.479F,
   -295.898F,
   -114.258F,
   4.15039F,
   70.8008F,
   -68.1152F,
   -142.578F,
   -170.898F,
   44.6777F,
   200.684F,
   172.119F,
   -64.6973F,
   -120.117F,
   -289.795F,
   102.783F,
   37.1094F,
   114.258F,
   -95.2148F,
   40.5273F,
   -65.4297F,
   9.52148F,
   378.418F,
   456.055F,
   -155.029F,
   -235.840F,
   -383.545F,
   -110.596F,
   -120.117F,
   222.168F,
   -69.3359F,
   -250.732F,
   -18.3105F,
   -44.1895F,
   -32.4707F,
   452.148F,
   -108.643F,
   -152.344F,
   -286.621F,
   102.539F,
   89.5996F,
   -11.9629F,
   -94.9707F,
   -51.7578F,
   -41.2598F,
   172.607F,
   261.963F,
   294.922F,
   -131.592F,
   -173.340F,
   -353.760F,
   20.2637F,
   -39.7949F,
   118.164F,
   -57.6172F,
   -132.568F,
   -86.6699F,
   82.5195F,
   286.865F,
   198.730F,
   -60.0586F,
   -75.4395F,
   -233.887F,
   147.949F,
   185.547F,
   14.6484F,
   40.5273F,
   -1.95313F,
   -39.7949F,
   -74.7070F,
   451.416F,
   625.732F,
   -182.373F,
   -250.244F,
   -435.303F,
   -102.295F,
   -108.887F,
   51.0254F,
   -175.293F,
   -138.184F,
   -130.371F,
   -123.535F,
   169.189F,
   209.229F,
   -113.037F,
   -170.166F,
   -264.160F,
   79.3457F,
   105.225F,
   -50.2930F,
   -3.66211F,
   -1.95313F,
   -186.279F,
   133.057F,
   224.365F,
   370.605F,
   -149.170F,
   -191.162F,
   -320.557F,
   62.5000F,
   -13.4277F,
   50.7813F,
   -40.2832F,
   -84.9609F,
   -161.621F,
   78.3691F,
   166.016F,
   227.051F,
   -79.5898F,
   -104.736F,
   -232.178F,
   118.164F,
   108.887F,
   139.160F,
   -48.0957F,
   17.5781F,
   -17.8223F,
   221.924F,
   355.225F,
   425.049F,
   -137.451F,
   -179.932F,
   -481.934F,
   -30.2734F,
   -101.563F,
   175.293F,
   -116.699F,
   -98.6328F,
   -76.6602F,
   -3.90625F,
   108.887F,
   399.414F,
   -134.521F,
   -131.104F,
   -183.105F,
   -14.1602F,
   155.762F,
   52.2461F,
   13.4277F,
   -45.1660F,
   -66.1621F,
   280.273F,
   317.627F,
   295.898F,
   -117.920F,
   -163.818F,
   -308.594F,
   28.5645F,
   69.5801F,
   132.568F,
   -49.8047F,
   -95.4590F,
   -27.0996F,
   125.244F,
   375.488F,
   208.496F,
   -27.8320F,
   -46.3867F,
   -238.770F,
   214.111F,
   145.264F,
   113.281F,
   63.4766F,
   63.4766F,
   -75.9277F,
   182.617F,
   557.373F,
   541.016F,
   -126.221F,
   -230.713F,
   -530.029F,
   -79.5898F,
   -172.852F,
   92.2852F,
   -198.242F,
   -168.701F,
   -56.6406F,
   -136.719F,
   167.725F,
   343.994F,
   -178.711F,
   -168.457F,
   -204.102F,
   -87.6465F,
   157.471F,
   94.2383F,
   -64.6973F,
   15.1367F,
   -165.527F,
   35.4004F,
   401.367F,
   294.922F,
   -135.498F,
   -241.211F,
   -301.025F,
   -19.0430F,
   3.41797F,
   27.8320F,
   -79.8340F,
   -87.4023F,
   -119.385F,
   95.7031F,
   165.283F,
   170.166F,
   -49.0723F,
   -57.6172F,
   -278.320F,
   169.189F,
   109.619F,
   43.4570F,
   -59.3262F,
   62.5000F,
   -105.713F,
   149.170F,
   338.135F,
   599.609F,
   -149.414F,
   -219.971F,
   -357.422F,
   -74.9512F,
   -4.15039F,
   121.826F,
   -76.9043F,
   -162.842F,
   -62.0117F,
   62.5000F,
   104.492F,
   357.178F,
   -118.652F,
   -103.027F,
   -257.813F,
   159.912F,
   90.3320F,
   4.39453F,
   -24.9023F,
   -45.1660F,
   -67.3828F,
   184.326F,
   385.254F,
   325.928F,
   -119.141F,
   -147.217F,
   -346.191F,
   44.4336F,
   -22.7051F,
   212.402F,
   -17.8223F,
   -111.816F,
   -84.9609F,
   203.857F,
   210.449F,
   233.643F,
   -68.8477F,
   -81.2988F,
   -182.129F,
   133.545F,
   204.834F,
   104.492F,
   66.6504F,
   -21.7285F,
   3.17383F,
   229.492F,
   416.992F,
   628.906F,
   -102.051F,
   -264.648F,
   -429.199F,
   -10.7422F,
   -87.4023F,
   63.2324F,
   -121.338F,
   -156.982F,
   -136.719F,
   24.1699F,
   135.986F,
   234.619F,
   -102.783F,
   -187.012F,
   -223.877F,
   72.0215F,
   79.5898F,
   44.9219F,
   42.7246F,
   3.66211F,
   -152.832F,
   129.883F,
   214.355F,
   483.643F,
   -108.154F,
   -187.500F,
   -311.279F,
   53.9551F,
   38.0859F,
   65.4297F,
   9.52148F,
   -88.6230F,
   -123.291F,
   169.678F,
   188.477F,
   278.320F,
   -39.5508F,
   -112.061F,
   -222.656F,
   173.096F,
   108.398F,
   160.645F,
   6.10352F,
   73.9746F,
   -76.1719F,
   309.570F,
   344.238F,
   418.701F,
   -72.5098F,
   -187.012F,
   -448.242F,
   -64.2090F,
   -26.3672F,
   261.230F,
   -99.1211F,
   -3.17383F,
   -31.4941F,
   13.9160F,
   106.934F,
   667.480F,
   -91.3086F,
   -118.896F,
   -203.857F,
   74.2188F,
   169.922F,
   40.0391F,
   25.3906F,
   -57.3730F,
   1.22070F,
   393.311F,
   463.867F,
   341.553F,
   -55.9082F,
   -142.090F,
   -323.486F,
   98.8770F,
   46.8750F,
   199.463F,
   -21.2402F,
   -106.934F,
   27.0996F,
   250.977F,
   292.725F,
   242.432F,
   16.6016F,
   -42.7246F,
   -228.027F,
   252.197F,
   272.705F,
   110.107F,
   116.699F,
   48.8281F,
   -60.5469F,
   519.287F,
   658.203F,
   498.535F,
   -203.857F,
   -322.998F,
   -520.264F,
   -195.068F,
   -168.945F,
   113.770F,
   -198.242F,
   -251.953F,
   -114.502F,
   -151.855F,
   70.3125F,
   224.609F,
   -171.143F,
   -205.322F,
   -261.230F,
   -100.342F,
   125.000F,
   1.95313F,
   -95.2148F,
   -22.2168F,
   -181.641F,
   -7.32422F,
   254.639F,
   283.447F,
   -200.684F,
   -280.273F,
   -282.227F,
   -71.7773F,
   -11.2305F,
   26.8555F,
   -100.342F,
   -91.3086F,
   -165.527F,
   52.2461F,
   129.639F,
   163.086F,
   -99.1211F,
   -102.539F,
   -291.504F,
   118.896F,
   56.6406F,
   73.9746F,
   -77.6367F,
   22.2168F,
   -115.234F,
   30.0293F,
   300.781F,
   596.924F,
   -176.270F,
   -232.422F,
   -364.990F,
   -180.176F,
   -164.795F,
   325.195F,
   -132.568F,
   -147.949F,
   -51.5137F,
   -23.1934F,
   -23.9258F,
   368.164F,
   -134.033F,
   -125.488F,
   -291.260F,
   115.479F,
   51.5137F,
   17.8223F,
   -70.3125F,
   -27.3438F,
   -94.9707F,
   131.104F,
   325.195F,
   307.129F,
   -138.428F,
   -184.326F,
   -377.197F,
   17.3340F,
   -69.0918F,
   154.297F,
   -41.5039F,
   -117.432F,
   -120.361F,
   166.260F,
   244.629F,
   199.463F,
   -86.9141F,
   -80.8105F,
   -214.111F,
   102.295F,
   172.363F,
   84.4727F,
   58.8379F,
   -8.30078F,
   -79.5898F,
   92.0410F,
   476.074F,
   459.717F,
   -177.490F,
   -262.451F,
   -396.729F,
   -56.8848F,
   -132.568F,
   28.3203F,
   -127.930F,
   -196.777F,
   -142.822F,
   -17.8223F,
   116.699F,
   177.979F,
   -70.3125F,
   -225.830F,
   -279.053F,
   42.2363F,
   109.131F,
   -12.6953F,
   16.6016F,
   -55.9082F,
   -147.949F,
   109.619F,
   129.150F,
   438.721F,
   -144.287F,
   -213.623F,
   -332.764F,
   44.6777F,
   -35.1563F,
   79.1016F,
   -25.1465F,
   -110.352F,
   -162.598F,
   152.100F,
   119.141F,
   287.109F,
   -58.1055F,
   -124.756F,
   -245.117F,
   79.5898F,
   134.766F,
   111.816F,
   33.2031F,
   26.3672F,
   -77.8809F,
   152.832F,
   327.881F,
   459.717F,
   -119.629F,
   -157.715F,
   -422.363F,
   -45.4102F,
   -109.619F,
   240.234F,
   -180.176F,
   -18.5547F,
   -41.5039F,
   -134.277F,
   184.326F,
   625.000F,
   -121.094F,
   -124.512F,
   -231.201F,
   51.2695F,
   169.434F,
   -12.6953F,
   20.5078F,
   -78.6133F,
   -48.5840F,
   266.113F,
   396.729F,
   298.828F,
   -91.7969F,
   -147.217F,
   -340.820F,
   83.7402F,
   18.0664F,
   154.297F,
   -42.7246F,
   -122.559F,
   -7.81250F,
   237.305F,
   325.195F,
   179.199F,
   12.6953F,
   -72.0215F,
   -271.729F,
   260.010F,
   224.121F,
   39.0625F,
   95.9473F,
   26.1230F,
   -96.9238F,
   296.387F,
   646.729F,
   425.049F,
   -154.297F,
   -293.213F,
   -461.670F,
   -175.537F,
   -67.6270F,
   86.1816F,
   -158.936F,
   -214.844F,
   -29.7852F,
   -51.5137F,
   51.0254F,
   326.660F,
   -137.207F,
   -174.316F,
   -258.545F,
   -50.7813F,
   94.7266F,
   38.8184F,
   -78.1250F,
   -14.8926F,
   -134.521F,
   71.5332F,
   266.602F,
   352.295F,
   -158.203F,
   -211.182F,
   -305.908F,
   -11.9629F,
   -34.9121F,
   74.4629F,
   -97.9004F,
   -55.4199F,
   -142.822F,
   136.963F,
   129.883F,
   226.318F,
   -28.5645F,
   -108.154F,
   -290.039F,
   123.779F,
   106.445F,
   71.2891F,
   -19.2871F,
   56.8848F,
   -111.816F,
   163.818F,
   250.244F,
   584.961F,
   -154.541F,
   -205.566F,
   -372.314F,
   -75.1953F,
   -69.8242F,
   156.250F,
   -91.0645F,
   -151.611F,
   -99.3652F,
   102.051F,
   61.7676F,
   318.604F,
   -76.9043F,
   -141.846F,
   -277.588F,
   139.648F,
   167.236F,
   -68.6035F,
   14.8926F,
   -16.6016F,
   -90.5762F,
   241.943F,
   268.799F,
   365.723F,
   -120.361F,
   -166.748F,
   -332.520F,
   -11.4746F,
   40.0391F,
   171.875F,
   -62.5000F,
   -76.6602F,
   -65.4297F,
   154.053F,
   231.689F,
   256.836F,
   -28.8086F,
   -84.9609F,
   -203.369F,
   16.6016F,
   288.086F,
   138.672F,
   37.1094F,
   28.5645F,
   8.30078F,
   271.729F,
   464.355F,
   546.631F,
   -146.729F,
   -234.131F,
   -416.504F,
   -34.9121F,
   -119.385F,
   117.188F,
   -81.0547F,
   -159.912F,
   -140.137F,
   13.1836F,
   86.1816F,
   291.016F,
   -112.793F,
   -159.180F,
   -194.336F,
   36.6211F,
   134.033F,
   27.3438F,
   47.6074F,
   -27.0996F,
   -125.732F,
   165.771F,
   270.508F,
   402.100F,
   -136.230F,
   -182.861F,
   -297.119F,
   -2.19727F,
   66.4063F,
   83.2520F,
   -12.9395F,
   -64.6973F,
   -130.615F,
   119.385F,
   205.811F,
   316.895F,
   -29.2969F,
   -117.676F,
   -251.953F,
   154.297F,
   132.568F,
   99.6094F,
   43.7012F,
   74.7070F,
   -128.418F,
   274.414F,
   357.422F,
   547.852F,
   -101.807F,
   -191.895F,
   -381.348F,
   -54.6875F,
   -93.7500F,
   333.008F,
   -92.0410F,
   -112.061F,
   -6.10352F,
   93.9941F,
   119.385F,
   530.762F,
   -81.0547F,
   -158.936F,
   -202.393F,
   132.813F,
   135.010F,
   14.8926F,
   5.37109F,
   -27.5879F,
   -21.7285F,
   275.391F,
   421.143F,
   372.070F,
   -52.7344F,
   -91.0645F,
   -403.564F,
   39.3066F,
   77.1484F,
   221.680F,
   -40.2832F,
   -54.1992F,
   -16.3574F,
   332.520F,
   286.865F,
   192.627F,
   17.8223F,
   -61.5234F,
   -187.256F,
   180.176F,
   227.539F,
   150.391F,
   88.3789F,
   60.0586F,
   -30.7617F,
   192.139F,
   647.949F,
   739.014F,
   -168.701F,
   -270.020F,
   -534.668F,
   -137.939F,
   -143.555F,
   127.930F,
   -144.043F,
   -239.014F,
   -119.629F,
   -64.2090F,
   96.9238F,
   239.746F,
   -140.869F,
   -204.346F,
   -230.713F,
   -5.37109F,
   106.201F,
   -11.9629F,
   -46.3867F,
   -28.8086F,
   -153.564F,
   -21.4844F,
   302.734F,
   369.385F,
   -155.273F,
   -256.592F,
   -248.779F,
   -71.0449F,
   46.1426F,
   63.2324F,
   -62.7441F,
   -114.746F,
   -153.564F,
   35.4004F,
   230.713F,
   218.262F,
   -79.5898F,
   -88.8672F,
   -267.090F,
   132.568F,
   63.4766F,
   153.809F,
   -49.3164F,
   46.1426F,
   -51.0254F,
   87.1582F,
   336.670F,
   510.498F,
   -138.916F,
   -262.451F,
   -353.760F,
   -174.316F,
   -58.3496F,
   224.365F,
   -102.539F,
   -172.119F,
   -20.5078F,
   -26.6113F,
   -27.8320F,
   587.646F,
   -100.830F,
   -129.150F,
   -287.354F,
   117.676F,
   89.8438F,
   31.9824F,
   -45.4102F,
   -17.5781F,
   -31.9824F,
   210.205F,
   306.396F,
   297.852F,
   -149.170F,
   -160.645F,
   -327.393F,
   55.4199F,
   -29.5410F,
   154.053F,
   -42.9688F,
   -119.385F,
   -53.2227F,
   181.885F,
   286.865F,
   233.643F,
   -78.3691F,
   -36.1328F,
   -228.516F,
   163.818F,
   235.840F,
   52.7344F,
   83.0078F,
   -0.732422F,
   -34.9121F,
   114.502F,
   451.172F,
   594.971F,
   -177.979F,
   -234.619F,
   -410.889F,
   -52.0020F,
   -62.0117F,
   78.3691F,
   -124.756F,
   -106.934F,
   -127.197F,
   -30.7617F,
   177.002F,
   220.459F,
   -83.0078F,
   -167.236F,
   -251.953F,
   77.1484F,
   117.188F,
   4.88281F,
   5.61523F,
   -21.7285F,
   -134.521F,
   86.1816F,
   256.592F,
   436.768F,
   -132.813F,
   -184.814F,
   -333.008F,
   72.7539F,
   -6.10352F,
   106.445F,
   -24.4141F,
   -95.7031F,
   -126.709F,
   114.014F,
   184.082F,
   263.184F,
   -51.2695F,
   -97.1680F,
   -263.184F,
   151.367F,
   160.645F,
   153.809F,
   8.05664F,
   35.8887F,
   -43.4570F,
   224.854F,
   411.865F,
   468.994F,
   -79.3457F,
   -128.906F,
   -482.910F,
   0.488281F,
   -69.5801F,
   222.168F,
   -90.5762F,
   -119.629F,
   -56.1523F,
   0.000000F,
   145.752F,
   490.723F,
   -121.094F,
   -96.4355F,
   -203.613F,
   9.03320F,
   230.713F,
   59.8145F,
   44.1895F,
   -39.0625F,
   -35.1563F,
   361.572F,
   335.205F,
   331.299F,
   -86.6699F,
   -146.729F,
   -310.059F,
   72.7539F,
   78.6133F,
   164.063F,
   -47.1191F,
   -82.0313F,
   18.7988F,
   265.869F,
   374.268F,
   225.098F,
   43.2129F,
   -9.52148F,
   -274.658F,
   243.164F,
   190.674F,
   130.859F,
   111.328F,
   89.3555F,
   -105.469F,
   345.459F,
   595.703F,
   556.396F,
   -113.770F,
   -185.059F,
   -567.627F,
   -73.9746F,
   -124.268F,
   94.4824F,
   -177.490F,
   -135.986F,
   16.1133F,
   -35.4004F,
   156.982F,
   304.688F,
   -132.813F,
   -165.039F,
   -223.633F,
   -54.9316F,
   210.449F,
   143.555F,
   -37.1094F,
   9.76563F,
   -130.127F,
   103.271F,
   347.412F,
   380.371F,
   -139.648F,
   -205.811F,
   -279.541F,
   -31.2500F,
   20.7520F,
   112.549F,
   -58.1055F,
   -62.7441F,
   -142.578F,
   147.705F,
   182.617F,
   210.205F,
   5.85938F,
   -49.3164F,
   -343.994F,
   194.580F,
   118.896F,
   73.9746F,
   -44.1895F,
   88.8672F,
   -44.4336F,
   150.391F,
   336.426F,
   718.262F,
   -120.605F,
   -208.008F,
   -351.807F,
   -71.2891F,
   14.8926F,
   198.242F,
   -20.5078F,
   -176.514F,
   -44.4336F,
   135.498F,
   129.883F,
   367.676F,
   -89.1113F,
   -120.361F,
   -258.057F,
   200.684F,
   143.555F,
   2.68555F,
   -3.41797F,
   -4.39453F,
   -56.1523F,
   244.385F,
   342.041F,
   354.248F,
   -115.723F,
   -138.916F,
   -315.430F,
   73.7305F,
   15.1367F,
   259.277F,
   -17.0898F,
   -91.7969F,
   -54.1992F,
   239.746F,
   237.793F,
   280.518F,
   -47.8516F,
   -57.1289F,
   -194.092F,
   116.943F,
   268.066F,
   121.826F,
   88.3789F,
   14.1602F,
   17.0898F,
   280.029F,
   505.127F,
   697.510F,
   -118.896F,
   -214.355F,
   -445.313F,
   17.8223F,
   -70.3125F,
   84.9609F,
   -87.4023F,
   -122.070F,
   -124.023F,
   48.5840F,
   176.025F,
   303.223F,
   -19.0430F,
   -170.166F,
   -194.092F,
   88.1348F,
   130.859F,
   47.8516F,
   91.3086F,
   26.8555F,
   -179.443F,
   206.787F,
   256.592F,
   462.891F,
   -89.3555F,
   -174.072F,
   -288.574F,
   76.9043F,
   78.1250F,
   104.736F,
   17.5781F,
   -52.4902F,
   -109.863F,
   185.303F,
   216.309F,
   332.764F,
   -7.32422F,
   -104.492F,
   -203.613F,
   210.205F,
   153.076F,
   194.336F,
   28.8086F,
   114.258F,
   -68.1152F,
   330.811F,
   459.717F,
   462.158F,
   -45.8984F,
   -156.738F,
   -393.555F,
   15.3809F,
   -42.7246F,
   292.480F,
   -102.051F,
   -51.5137F,
   12.4512F,
   101.074F,
   143.311F,
   635.010F,
   -57.1289F,
   -135.986F,
   -209.473F,
   103.516F,
   217.041F,
   54.1992F,
   33.2031F,
   -24.6582F,
   20.2637F,
   344.971F,
   556.152F,
   337.646F,
   -20.5078F,
   -108.643F,
   -339.111F,
   101.074F,
   76.4160F,
   255.127F,
   7.08008F,
   -83.7402F,
   15.8691F,
   378.906F,
   402.100F,
   239.258F,
   44.6777F,
   -22.2168F,
   -202.393F,
   310.791F,
   344.971F,
   87.8906F,
   135.010F,
   66.4063F,
   -26.1230F,
   387.451F,
   768.799F,
   635.498F

};
#endif



/* Table for MR475 gain */
#define MR475_VQ_SIZE 256



/*
 *    g_pitch        ,
 *    g_fac          , (g_code = g_code0*g_fac),
 */
/* table used in 'high' rates: MR67 MR74 MR102 */

#define VQ_SIZE_HIGHRATES 128


/* table used in 'low' rates: MR475, MR515, MR59 */
#define VQ_SIZE_LOWRATES 64

#if 0
#define VQ_SIZE_HIGHRATES 128
static const Float32 table_highrates[VQ_SIZE_HIGHRATES * 2] =
{
   /*g_pit,    g_fac,   */
   0.0352173F,   0.161621F,
   0.0491943F,   0.448242F,
   0.189758F,   0.256836F,
   0.255188F,   0.338623F,
   0.144836F,   0.347900F,
   0.198242F,   0.484619F,
   0.111511F,   0.566406F,
   0.0574341F,   0.809082F,
   0.143494F,   0.726807F,
   0.220703F,   0.590820F,
   0.210632F,   0.755859F,
   0.180359F,   1.05005F,
   0.112793F,   1.09863F,
   0.237061F,   1.32227F,
   0.0724487F,   1.76025F,
   0.188171F,   2.19727F,
   0.450684F,   0.215576F,
   0.363892F,   0.367676F,
   0.314636F,   0.520996F,
   0.484863F,   0.490479F,
   0.397156F,   0.549316F,
   0.468140F,   0.671875F,
   0.363281F,   0.736328F,
   0.298950F,   0.918945F,
   0.426575F,   0.875977F,
   0.498901F,   0.971191F,
   0.370117F,   1.07520F,
   0.470520F,   1.24194F,
   0.337097F,   1.46997F,
   0.474182F,   1.73975F,
   0.369873F,   1.93799F,
   0.341431F,   2.80444F,
   0.645813F,   0.331055F,
   0.552307F,   0.389893F,
   0.597778F,   0.496826F,
   0.546021F,   0.589600F,
   0.628418F,   0.630859F,
   0.574158F,   0.667480F,
   0.531006F,   0.785645F,
   0.595520F,   0.828857F,
   0.621155F,   0.950195F,
   0.559692F,   1.10547F,
   0.619629F,   1.22168F,
   0.556274F,   1.40015F,
   0.640869F,   1.52979F,
   0.617065F,   1.86304F,
   0.539795F,   2.13062F,
   0.546631F,   3.05078F,
   0.788818F,   0.238281F,
   0.697937F,   0.428467F,
   0.740845F,   0.568359F,
   0.695068F,   0.578125F,
   0.653076F,   0.748047F,
   0.752686F,   0.698486F,
   0.715454F,   0.812256F,
   0.687866F,   0.903320F,
   0.662903F,   1.07739F,
   0.737427F,   1.10669F,
   0.688660F,   1.27075F,
   0.729980F,   1.53931F,
   0.681580F,   1.83936F,
   0.740234F,   2.03345F,
   0.669495F,   2.63110F,
   0.628662F,   4.24219F,
   0.848328F,   0.410400F,
   0.767822F,   0.499268F,
   0.809631F,   0.595459F,
   0.856506F,   0.729736F,
   0.821045F,   0.756348F,
   0.756592F,   0.893066F,
   0.824585F,   0.922852F,
   0.786133F,   1.04297F,
   0.825989F,   1.18677F,
   0.773132F,   1.33228F,
   0.845581F,   1.49072F,
   0.795349F,   1.58276F,
   0.827454F,   1.88501F,
   0.790833F,   2.27319F,
   0.837036F,   2.82007F,
   0.768494F,   3.71240F,
   0.922424F,   0.375977F,
   0.919922F,   0.569580F,
   0.886658F,   0.613037F,
   0.896729F,   0.781006F,
   0.938843F,   0.869141F,
   0.862610F,   0.966797F,
   0.921753F,   1.03418F,
   0.874756F,   1.17773F,
   0.906128F,   1.33081F,
   0.934204F,   1.48511F,
   0.874573F,   1.68164F,
   0.919189F,   1.87720F,
   0.879272F,   2.30127F,
   0.939148F,   2.37817F,
   0.904785F,   3.48413F,
   0.830078F,   6.08862F,
   1.00073F,   0.480713F,
   1.02643F,   0.691406F,
   0.959045F,   0.694092F,
   0.982910F,   0.814453F,
   1.00000F,   0.967529F,
   1.03394F,   1.11792F,
   0.958923F,   1.12280F,
   0.990112F,   1.33008F,
   1.02734F,   1.55811F,
   0.960999F,   1.74341F,
   0.996460F,   1.82349F,
   1.01385F,   2.10547F,
   1.03931F,   2.54346F,
   0.970764F,   2.88501F,
   1.03015F,   3.58643F,
   1.00800F,   5.09521F,
   1.10730F,   0.508545F,
   1.18414F,   0.775879F,
   1.06860F,   0.836426F,
   1.22400F,   0.983154F,
   1.10284F,   1.03735F,
   1.15674F,   1.23682F,
   1.08099F,   1.31885F,
   1.21063F,   1.51172F,
   1.09558F,   1.71240F,
   1.30115F,   1.92310F,
   1.09314F,   2.26782F,
   1.16846F,   2.26807F,
   1.25226F,   2.77856F,
   1.10321F,   3.53638F,
   1.22064F,   4.36572F,
   1.15002F,   7.99902F
};


/* table used in 'low' rates: MR475, MR515, MR59 */
#define VQ_SIZE_LOWRATES 64
static const Float32 table_lowrates[VQ_SIZE_LOWRATES * 2] =
{
   /*g_pit,    g_fac */
   0.659973F,   7.01978F,
   1.25000F,   0.679932F,
   1.14996F,   1.60986F,
   0.379944F,   1.80981F,
   1.04999F,   2.54980F,
   1.31995F,   0.309814F,
   1.28998F,   1.07983F,
   0.689941F,   0.379883F,
   1.15997F,   3.12988F,
   1.06000F,   0.609863F,
   1.08997F,   1.17993F,
   0.609985F,   0.609863F,
   1.06995F,   1.91992F,
   0.869995F,   0.459961F,
   0.969971F,   0.769775F,
   0.409973F,   0.439941F,
   1.10999F,   4.92993F,
   1.09998F,   0.739990F,
   1.01996F,   1.42993F,
   0.539978F,   0.979980F,
   0.969971F,   2.18994F,
   1.09998F,   0.339844F,
   1.01996F,   1.00000F,
   0.500000F,   0.159912F,
   0.929993F,   3.39990F,
   0.869995F,   0.759766F,
   0.859985F,   1.13989F,
   0.329956F,   0.659912F,
   0.819946F,   1.59985F,
   0.759949F,   0.219971F,
   0.759949F,   0.649902F,
   0.229980F,   0.159912F,
   0.899963F,   5.73999F,
   1.16998F,   0.599854F,
   1.22998F,   1.23999F,
   0.419983F,   1.00000F,
   1.25000F,   2.08984F,
   1.19995F,   0.179932F,
   1.15997F,   1.03979F,
   0.479980F,   0.509766F,
   0.699951F,   3.00000F,
   0.969971F,   0.359863F,
   0.959961F,   1.12988F,
   0.559998F,   0.349854F,
   0.979980F,   1.70996F,
   0.904968F,   0.179932F,
   0.919983F,   0.549805F,
   0.309998F,   0.299805F,
   0.809998F,   4.22998F,
   1.00995F,   0.569824F,
   0.919983F,   1.41992F,
   0.239990F,   0.899902F,
   0.869995F,   2.09985F,
   1.02997F,   0.189941F,
   0.919983F,   0.929932F,
   0.369995F,   0.149902F,
   0.569946F,   2.25977F,
   0.809998F,   0.429932F,
   0.809998F,   0.859863F,
   0.149963F,   0.479980F,
   0.699951F,   1.34985F,
   0.639954F,   0.179932F,
   0.709961F,   0.779785F,
   0.0899658F,   0.189941F
};
#endif

#define DTX_VQ_SIZE 47
static const Word16 qua_gain_code_MR122[NB_QUA_CODE+VQ_SIZE_HIGHRATES+VQ_SIZE_LOWRATES+(MR475_VQ_SIZE*2)+DTX_VQ_SIZE+1] =
{
      - 3776,
      - 3394,
      - 3005,
      - 2615,
      - 2345,
      - 2138,
      - 1932,
      - 1726,
      - 1518,
      - 1314,
      - 1106,
      - 900,
      - 694,
      - 487,
      - 281,
      - 75,
      133,
      339,
      545,
      752,
      958,
      1165,
      1371,
      1577,
      1784,
      1991,
      2197,
      2404,
      2673,
      3060,
      3448,
      3836,
      /* high_rates */
      - 2692,
      - 1185,
      - 2008,
      - 1600,
      - 1560,
      - 1070,
      - 840,
      - 313,
      - 471,
      - 777,
      - 414,
      72,
      139,
      413,
      835,
      1163,
      - 2267,
      - 1478,
      - 963,
      - 1052,
      - 885,
      - 588,
      - 452,
      - 125,
      - 196,
      - 43,
      107,
      320,
      569,
      818,
      977,
      1523,
      - 1633,
      - 1391,
      - 1033,
      - 780,
      - 681,
      - 597,
      - 356,
      - 277,
      - 75,
      148,
      296,
      497,
      628,
      919,
      1117,
      1648,
      - 2119,
      - 1252,
      - 835,
      - 810,
      - 429,
      - 530,
      - 307,
      - 150,
      110,
      150,
      354,
      637,
      900,
      1049,
      1429,
      2135,
      - 1316,
      - 1026,
      - 766,
      - 465,
      - 413,
      - 167,
      - 119,
      62,
      253,
      424,
      590,
      678,
      937,
      1213,
      1532,
      1938,
      - 1445,
      - 832,
      - 723,
      - 365,
      - 207,
      - 50,
      50,
      242,
      422,
      584,
      768,
      930,
      1231,
      1280,
      1844,
      2669,
      - 1082,
      - 545,
      - 539,
      - 303,
      - 49,
      165,
      171,
      421,
      655,
      821,
      888,
      1100,
      1379,
      1565,
      1887,
      2406,
      - 999,
      - 375,
      - 264,
      - 25,
      54,
      314,
      409,
      610,
      795,
      966,
      1210,
      1210,
      1510,
      1866,
      2177,
      3072,
      /* low_rates */
      2879,
      - 570,
      703,
      876,
      1383,
      - 1731,
      113,
      - 1430,
      1686,
      - 731,
      244,
      - 731,
      964,
      - 1147,
      - 387,
      - 1213,
      2357,
      - 445,
      528,
      - 30,
      1158,
      - 1594,
      0,
      - 2708,
      1808,
      - 406,
      193,
      - 614,
      694,
      - 2237,
      - 637,
      - 2708,
      2582,
      - 755,
      318,
      0,
      1089,
      - 2534,
      58,
      - 995,
      1623,
      - 1510,
      180,
      - 1552,
      793,
      - 2534,
      - 884,
      - 1780,
      2131,
      - 831,
      518,
      - 156,
      1096,
      - 2454,
      - 107,
      - 2804,
      1204,
      - 1247,
      - 223,
      - 1084,
      443,
      - 2534,
      - 367,
      - 2454,
      /* MR475 */
      - 5120,
      - 4988,
      - 1896,
      - 274,
      - 2932,
      - 2726,
      - 1216,
      376,
      - 3536,
      - 3293,
      - 650,
      - 733,
      - 2418,
      - 2664,
      1053,
      - 1303,
      - 3337,
      - 3256,
      - 9,
      - 1732,
      - 2237,
      - 2076,
      - 332,
      252,
      - 1044,
      - 2350,
      262,
      - 1296,
      - 1385,
      - 827,
      - 1447,
      1309,
      - 3375,
      - 3386,
      - 1418,
      - 215,
      - 2731,
      - 2754,
      - 1610,
      594,
      - 2610,
      - 2821,
      - 1409,
      189,
      - 1292,
      - 1779,
      853,
      492,
      - 1865,
      - 1103,
      593,
      - 1211,
      - 1213,
      - 1407,
      - 201,
      621,
      - 1903,
      - 1270,
      191,
      - 310,
      - 1435,
      - 453,
      1386,
      728,
      - 2646,
      - 1689,
      - 60,
      - 609,
      - 2602,
      - 2409,
      356,
      396,
      - 2991,
      - 2775,
      - 150,
      - 785,
      - 2577,
      - 2506,
      1524,
      - 881,
      - 3119,
      - 3041,
      - 98,
      - 442,
      - 2134,
      - 1151,
      411,
      254,
      - 1075,
      - 1777,
      105,
      - 291,
      - 524,
      - 1519,
      - 1318,
      1895,
      - 2838,
      - 2972,
      - 216,
      - 812,
      - 2785,
      - 2677,
      - 221,
      1286,
      - 2792,
      - 2863,
      - 454,
      26,
      - 1379,
      - 1780,
      1211,
      287,
      - 1798,
      - 1868,
      440,
      - 647,
      - 1034,
      - 892,
      322,
      740,
      - 1572,
      - 823,
      558,
      - 511,
      - 860,
      - 714,
      1356,
      1502,
      - 3690,
      - 3448,
      - 496,
      - 632,
      - 2770,
      - 2706,
      - 768,
      867,
      - 2360,
      - 2301,
      - 734,
      - 211,
      - 2005,
      - 1530,
      970,
      - 246,
      - 2982,
      - 2646,
      23,
      - 1349,
      - 1868,
      - 694,
      - 137,
      369,
      - 1056,
      - 1263,
      369,
      - 1317,
      - 1249,
      - 351,
      572,
      1320,
      - 3289,
      - 3237,
      - 890,
      43,
      - 2411,
      - 2367,
      - 998,
      694,
      - 2089,
      - 2105,
      - 728,
      296,
      - 1019,
      - 1341,
      775,
      511,
      - 2362,
      - 1311,
      508,
      - 1432,
      - 653,
      - 1525,
      214,
      634,
      - 1158,
      - 862,
      162,
      - 92,
      - 846,
      - 345,
      2171,
      - 582,
      - 1579,
      - 2279,
      - 213,
      40,
      - 2653,
      - 2448,
      329,
      928,
      - 2424,
      - 1836,
      - 383,
      - 441,
      - 2272,
      - 2320,
      1888,
      - 1119,
      - 2186,
      - 1960,
      - 4,
      150,
      - 2341,
      - 1968,
      555,
      164,
      - 686,
      - 1856,
      - 19,
      - 656,
      - 597,
      - 928,
      - 353,
      2304,
      - 2190,
      - 1372,
      - 416,
      64,
      - 2353,
      - 2394,
      - 860,
      1028,
      - 1313,
      - 1187,
      - 551,
      388,
      - 767,
      - 1666,
      1017,
      1088,
      - 1020,
      - 1676,
      747,
      - 1107,
      - 211,
      - 1233,
      704,
      943,
      - 700,
      - 646,
      891,
      - 886,
      - 518,
      - 307,
      2354,
      1047,
      - 2789,
      - 2880,
      - 860,
      - 180,
      - 2504,
      - 2358,
      - 531,
      541,
      - 2940,
      - 2929,
      - 456,
      - 157,
      - 2416,
      - 2552,
      1121,
      - 434,
      - 2454,
      - 2353,
      316,
      - 752,
      - 1162,
      - 1739,
      154,
      144,
      - 469,
      - 1743,
      186,
      - 668,
      - 795,
      - 708,
      - 485,
      1595,
      - 2644,
      - 2564,
      - 1725,
      37,
      - 2651,
      - 2858,
      - 1044,
      1119,
      - 2269,
      - 2240,
      - 933,
      47,
      - 1698,
      - 1038,
      890,
      162,
      - 1049,
      - 1211,
      701,
      - 192,
      - 1379,
      - 1292,
      - 251,
      714,
      - 2073,
      - 983,
      305,
      61,
      - 1660,
      - 227,
      1830,
      760,
      - 2534,
      - 2304,
      - 520,
      - 216,
      - 1764,
      - 2245,
      181,
      508,
      - 2865,
      - 2868,
      - 128,
      - 389,
      - 2492,
      - 2500,
      1478,
      - 913,
      - 2813,
      - 2657,
      18,
      - 307,
      - 1326,
      - 839,
      438,
      430,
      - 516,
      - 1644,
      388,
      - 54,
      - 133,
      - 1550,
      - 9,
      1985,
      - 1300,
      - 2265,
      161,
      - 317,
      - 2385,
      - 2227,
      65,
      1055,
      - 1960,
      - 2297,
      - 116,
      170,
      - 1451,
      - 912,
      1273,
      143,
      - 1963,
      - 927,
      581,
      126,
      - 1362,
      - 430,
      340,
      806,
      - 704,
      - 868,
      615,
      - 272,
      - 291,
      - 1070,
      1691,
      1985,
      - 2054,
      - 2262,
      72,
      - 168,
      - 1881,
      - 1532,
      - 900,
      715,
      - 1808,
      - 2415,
      - 271,
      - 81,
      - 981,
      - 959,
      1135,
      - 672,
      - 1768,
      - 2389,
      109,
      - 1013,
      - 539,
      - 881,
      134,
      405,
      - 582,
      - 974,
      429,
      - 569,
      - 605,
      - 80,
      244,
      1613,
      - 2089,
      - 2101,
      - 421,
      400,
      - 1328,
      - 1835,
      - 811,
      792,
      - 1424,
      - 1905,
      - 1453,
      403,
      - 1012,
      - 949,
      1033,
      640,
      - 1480,
      - 686,
      751,
      - 516,
      - 283,
      - 1190,
      215,
      852,
      - 572,
      - 310,
      310,
      210,
      - 806,
      101,
      2760,
      - 427,
      - 1420,
      - 1983,
      269,
      - 217,
      - 2275,
      - 2321,
      104,
      939,
      - 2055,
      - 2137,
      - 52,
      - 262,
      - 2110,
      - 2139,
      1693,
      37,
      - 1789,
      - 2387,
      334,
      264,
      - 1216,
      - 49,
      607,
      546,
      - 267,
      - 1081,
      346,
      - 457,
      - 116,
      - 810,
      - 592,
      2750,
      - 1710,
      - 2070,
      - 182,
      439,
      - 2418,
      - 2221,
      - 428,
      1359,
      - 653,
      - 1732,
      - 288,
      361,
      - 1318,
      - 378,
      1426,
      759,
      - 854,
      - 767,
      773,
      - 283,
      - 321,
      - 775,
      730,
      1302,
      - 669,
      - 393,
      945,
      - 80,
      - 158,
      - 284,
      2295,
      2557,
      /* dtx */
      - 1921,
      - 1878,
      - 1836,
      - 1793,
      - 1751,
      - 1708,
      - 1666,
      - 1623,
      - 1581,
      - 1538,
      - 1495,
      - 1453,
      - 1410,
      - 1368,
      - 1325,
      - 1283,
      - 1240,
      - 1198,
      - 1155,
      - 1113,
      - 1070,
      - 1028,
      - 985,
      - 943,
      - 900,
      - 858,
      - 815,
      - 773,
      - 730,
      - 688,
      - 645,
      - 602,
      - 560,
      - 517,
      - 475,
      - 432,
      - 390,
      - 347,
      - 305,
      - 262,
      - 220,
      - 177,
      - 135,
      - 92,
      - 50,
      - 7,
      0,
      /* init value */
      - 2381
};

#if 0
static const Word32 qua_gain_code[NB_QUA_CODE+VQ_SIZE_HIGHRATES+VQ_SIZE_LOWRATES+(MR475_VQ_SIZE*2)+DTX_VQ_SIZE+3] =
{
      - 22731,
      - 20428,
      - 18088,
      - 15739,
      - 14113,
      - 12867,
      - 11629,
      - 10387,
      - 9139,
      - 7906,
      - 6656,
      - 5416,
      - 4173,
      - 2931,
      - 1688,
      - 445,
      801,
      2044,
      3285,
      4530,
      5772,
      7016,
      8259,
      9501,
      10745,
      11988,
      13231,
      14474,
      16096,
      18429,
      20763,
      23097,
      /* high rates */
      - 16214,
      - 7135,
      - 12086,
      - 9629,
      - 9394,
      - 6442,
      - 5056,
      - 1885,
      - 2838,
      - 4681,
      - 2490,
      434,
      836,
      2484,
      5030,
      7002,
      - 13647,
      - 8900,
      - 5800,
      - 6335,
      - 5327,
      - 3537,
      - 2724,
      - 751,
      - 1177,
      - 260,
      645,
      1928,
      3426,
      4926,
      5885,
      9172,
      - 9831,
      - 8380,
      - 6220,
      - 4700,
      - 4099,
      - 3595,
      - 2144,
      - 1669,
      - 454,
      891,
      1781,
      2993,
      3782,
      5534,
      6728,
      9921,
      - 12753,
      - 7539,
      - 5024,
      - 4872,
      - 2580,
      - 3192,
      - 1848,
      - 904,
      663,
      902,
      2132,
      3837,
      5420,
      6312,
      8604,
      12853,
      - 7921,
      - 6179,
      - 4610,
      - 2802,
      - 2482,
      - 1006,
      - 713,
      374,
      1523,
      2552,
      3551,
      4084,
      5639,
      7304,
      9221,
      11667,
      - 8700,
      - 5007,
      - 4352,
      - 2197,
      - 1247,
      - 300,
      298,
      1454,
      2542,
      3518,
      4623,
      5602,
      7413,
      7706,
      11102,
      16067,
      - 6517,
      - 3283,
      - 3248,
      - 1825,
      - 294,
      992,
      1030,
      2537,
      3945,
      4944,
      5343,
      6622,
      8303,
      9423,
      11360,
      14483,
      - 6013,
      - 2257,
      - 1589,
      - 151,
      326,
      1890,
      2461,
      3676,
      4784,
      5816,
      7283,
      7284,
      9089,
      11234,
      13108,
      18494,
      /* low_rates */
      17333,
      - 3431,
      4235,
      5276,
      8325,
      - 10422,
      683,
      - 8609,
      10148,
      - 4398,
      1472,
      - 4398,
      5802,
      - 6907,
      - 2327,
      - 7303,
      14189,
      - 2678,
      3181,
      - 180,
      6972,
      - 9599,
      0,
      - 16305,
      10884,
      - 2444,
      1165,
      - 3697,
      4180,
      - 13468,
      - 3833,
      - 16305,
      15543,
      - 4546,
      1913,
      0,
      6556,
      - 15255,
      347,
      - 5993,
      9771,
      - 9090,
      1086,
      - 9341,
      4772,
      - 15255,
      - 5321,
      - 10714,
      12827,
      - 5002,
      3118,
      - 938,
      6598,
      - 14774,
      - 646,
      - 16879,
      7251,
      - 7508,
      - 1343,
      - 6529,
      2668,
      - 15255,
      - 2212,
      - 14774,
      /* MR475 */
      - 30825,
      - 30028,
      - 11416,
      - 1652,
      - 17651,
      - 16414,
      - 7323,
      2266,
      - 21289,
      - 19823,
      - 3914,
      - 4413,
      - 14560,
      - 16037,
      6338,
      - 7842,
      - 20089,
      - 19604,
      - 53,
      - 10430,
      - 13469,
      - 12497,
      - 2001,
      1517,
      - 6283,
      - 14145,
      1579,
      - 7801,
      - 8339,
      - 4977,
      - 8713,
      7881,
      - 20321,
      - 20385,
      - 8535,
      - 1296,
      - 16442,
      - 16581,
      - 9696,
      3577,
      - 15714,
      - 16981,
      - 8484,
      1135,
      - 7780,
      - 10708,
      5136,
      2962,
      - 11229,
      - 6643,
      3572,
      - 7294,
      - 7304,
      - 8473,
      - 1208,
      3739,
      - 11455,
      - 7646,
      1150,
      - 1866,
      - 8638,
      - 2726,
      8342,
      4384,
      - 15933,
      - 10167,
      - 362,
      - 3665,
      - 15663,
      - 14504,
      2142,
      2387,
      - 18006,
      - 16707,
      - 905,
      - 4726,
      - 15513,
      - 15088,
      9173,
      - 5305,
      - 18778,
      - 18307,
      - 591,
      - 2661,
      - 12849,
      - 6927,
      2472,
      1527,
      - 6470,
      - 10701,
      632,
      - 1754,
      - 3155,
      - 9145,
      - 7938,
      11408,
      - 17085,
      - 17891,
      - 1301,
      - 4889,
      - 16764,
      - 16117,
      - 1333,
      7744,
      - 16808,
      - 17234,
      - 2732,
      154,
      - 8300,
      - 10715,
      7291,
      1731,
      - 10824,
      - 11244,
      2652,
      - 3894,
      - 6227,
      - 5372,
      1937,
      4457,
      - 9466,
      - 4954,
      3358,
      - 3075,
      - 5176,
      - 4297,
      8162,
      9040,
      - 22215,
      - 20758,
      - 2986,
      - 3807,
      - 16679,
      - 16291,
      - 4626,
      5220,
      - 14210,
      - 13852,
      - 4420,
      - 1271,
      - 12073,
      - 9212,
      5842,
      - 1481,
      - 17956,
      - 15933,
      137,
      - 8120,
      - 11244,
      - 4180,
      - 826,
      2224,
      - 6359,
      - 7605,
      2219,
      - 7927,
      - 7518,
      - 2111,
      3447,
      7949,
      - 19803,
      - 19487,
      - 5360,
      259,
      - 14515,
      - 14253,
      - 6011,
      4180,
      - 12577,
      - 12676,
      - 4384,
      1784,
      - 6135,
      - 8071,
      4665,
      3078,
      - 14220,
      - 7896,
      3060,
      - 8621,
      - 3931,
      - 9182,
      1285,
      3816,
      - 6974,
      - 5192,
      975,
      - 554,
      - 5091,
      - 2075,
      13071,
      - 3502,
      - 9504,
      - 13719,
      - 1280,
      244,
      - 15972,
      - 14740,
      1981,
      5587,
      - 14593,
      - 11054,
      - 2308,
      - 2656,
      - 13678,
      - 13966,
      11370,
      - 6739,
      - 13158,
      - 11799,
      - 27,
      901,
      - 14092,
      - 11849,
      3344,
      989,
      - 4132,
      - 11176,
      - 114,
      - 3951,
      - 3596,
      - 5586,
      - 2124,
      13869,
      - 13187,
      - 8262,
      - 2502,
      384,
      - 14166,
      - 14416,
      - 5176,
      6192,
      - 7906,
      - 7147,
      - 3320,
      2336,
      - 4615,
      - 10032,
      6125,
      6551,
      - 6144,
      - 10092,
      4495,
      - 6666,
      - 1273,
      - 7423,
      4241,
      5680,
      - 4212,
      - 3891,
      5366,
      - 5337,
      - 3121,
      - 1847,
      14175,
      6302,
      - 16793,
      - 17341,
      - 5176,
      - 1085,
      - 15076,
      - 14199,
      - 3195,
      3257,
      - 17698,
      - 17635,
      - 2746,
      - 946,
      - 14548,
      - 15365,
      6748,
      - 2615,
      - 14774,
      - 14166,
      1904,
      - 4525,
      - 6998,
      - 10472,
      928,
      865,
      - 2821,
      - 10493,
      1122,
      - 4019,
      - 4785,
      - 4261,
      - 2922,
      9604,
      - 15920,
      - 15438,
      - 10388,
      222,
      - 15959,
      - 17204,
      - 6283,
      6737,
      - 13658,
      - 13488,
      - 5618,
      280,
      - 10222,
      - 6248,
      5358,
      977,
      - 6319,
      - 7294,
      4218,
      - 1156,
      - 8300,
      - 7780,
      - 1514,
      4296,
      - 12479,
      - 5917,
      1839,
      367,
      - 9992,
      - 1369,
      11020,
      4578,
      - 15255,
      - 13873,
      - 3133,
      - 1298,
      - 10621,
      - 13518,
      1087,
      3057,
      - 17250,
      - 17265,
      - 774,
      - 2339,
      - 15006,
      - 15053,
      8896,
      - 5497,
      - 16938,
      - 15998,
      107,
      - 1850,
      - 7980,
      - 5053,
      2639,
      2590,
      - 3108,
      - 9898,
      2333,
      - 323,
      - 800,
      - 9329,
      - 57,
      11948,
      - 7827,
      - 13638,
      967,
      - 1906,
      - 14361,
      - 13410,
      392,
      6353,
      - 11799,
      - 13831,
      - 698,
      1024,
      - 8736,
      - 5489,
      7665,
      861,
      - 11816,
      - 5582,
      3495,
      761,
      - 8201,
      - 2588,
      2045,
      4850,
      - 4240,
      - 5223,
      3705,
      - 1636,
      - 1754,
      - 6443,
      10180,
      11952,
      - 12365,
      - 13618,
      433,
      - 1009,
      - 11322,
      - 9225,
      - 5421,
      4302,
      - 10883,
      - 14537,
      - 1633,
      - 489,
      - 5904,
      - 5771,
      6831,
      - 4047,
      - 10643,
      - 14383,
      656,
      - 6097,
      - 3245,
      - 5305,
      809,
      2438,
      - 3502,
      - 5862,
      2584,
      - 3429,
      - 3642,
      - 482,
      1471,
      9712,
      - 12577,
      - 12649,
      - 2533,
      2410,
      - 7996,
      - 11047,
      - 4882,
      4768,
      - 8575,
      - 11470,
      - 8747,
      2427,
      - 6092,
      - 5713,
      6222,
      3854,
      - 8911,
      - 4132,
      4521,
      - 3108,
      - 1704,
      - 7162,
      1293,
      5132,
      - 3445,
      - 1866,
      1868,
      1264,
      - 4855,
      608,
      16615,
      - 2571,
      - 8552,
      - 11940,
      1620,
      - 1308,
      - 13699,
      - 13976,
      626,
      5652,
      - 12374,
      - 12868,
      - 312,
      - 1579,
      - 12703,
      - 12877,
      10194,
      222,
      - 10773,
      - 14372,
      2009,
      1590,
      - 7323,
      - 296,
      3655,
      3289,
      - 1605,
      - 6506,
      2082,
      - 2752,
      - 696,
      - 4878,
      - 3567,
      16558,
      - 10297,
      - 12462,
      - 1094,
      2640,
      - 14560,
      - 13370,
      - 2577,
      8180,
      - 3931,
      - 10430,
      - 1733,
      2173,
      - 7938,
      - 2274,
      8585,
      4567,
      - 5141,
      - 4619,
      4655,
      - 1707,
      - 1931,
      - 4666,
      4396,
      7837,
      - 4026,
      - 2364,
      5687,
      - 482,
      - 948,
      - 1709,
      13820,
      15394,
      /* dtx */
      - 11560,
      - 11304,
      - 11048,
      - 10792,
      - 10536,
      - 10280,
      - 10024,
      - 9768,
      - 9512,
      - 9256,
      - 9000,
      - 8744,
      - 8488,
      - 8232,
      - 7976,
      - 7720,
      - 7464,
      - 7208,
      - 6952,
      - 6696,
      - 6440,
      - 6184,
      - 5928,
      - 5672,
      - 5416,
      - 5160,
      - 4904,
      - 4648,
      - 4392,
      - 4136,
      - 3880,
      - 3624,
      - 3368,
      - 3112,
      - 2856,
      - 2600,
      - 2344,
      - 2088,
      - 1832,
      - 1576,
      - 1320,
      - 1064,
      - 808,
      - 552,
      - 296,
      - 40,
      0,
      /* init value */
      - 14336,
      /* min */
      - 32767,
      /* max */
      18284

};
#endif

/*
 * LP analysis is performed twice per frame using two different asymmetric windows.
 * The second window has its weight concentrated at the fourth subframe
 * and it consists of two parts:
 * the first part is half a Hamming window and
 * the second part is a quarter of a cosine function cycle.
 */

#if 0
static const Float32 window_200_40[240] =
{
   0.0800000F,
   0.0800570F,
   0.0802281F,
   0.0805132F,
   0.0809123F,
   0.0814251F,
   0.0820517F,
   0.0827919F,
   0.0836454F,
   0.0846121F,
   0.0856917F,
   0.0868840F,
   0.0881886F,
   0.0896053F,
   0.0911337F,
   0.0927733F,
   0.0945239F,
   0.0963849F,
   0.0983560F,
   0.100437F,
   0.102626F,
   0.104924F,
   0.107330F,
   0.109843F,
   0.112463F,
   0.115189F,
   0.118020F,
   0.120956F,
   0.123996F,
   0.127139F,
   0.130384F,
   0.133731F,
   0.137178F,
   0.140726F,
   0.144372F,
   0.148117F,
   0.151959F,
   0.155897F,
   0.159930F,
   0.164058F,
   0.168278F,
   0.172591F,
   0.176995F,
   0.181489F,
   0.186072F,
   0.190743F,
   0.195500F,
   0.200343F,
   0.205270F,
   0.210280F,
   0.215372F,
   0.220544F,
   0.225795F,
   0.231125F,
   0.236531F,
   0.242012F,
   0.247567F,
   0.253195F,
   0.258893F,
   0.264662F,
   0.270499F,
   0.276402F,
   0.282371F,
   0.288404F,
   0.294499F,
   0.300655F,
   0.306871F,
   0.313144F,
   0.319473F,
   0.325857F,
   0.332295F,
   0.338783F,
   0.345322F,
   0.351909F,
   0.358543F,
   0.365221F,
   0.371943F,
   0.378707F,
   0.385510F,
   0.392352F,
   0.399231F,
   0.406144F,
   0.413091F,
   0.420069F,
   0.427077F,
   0.434112F,
   0.441175F,
   0.448261F,
   0.455371F,
   0.462501F,
   0.469650F,
   0.476817F,
   0.484000F,
   0.491197F,
   0.498405F,
   0.505624F,
   0.512852F,
   0.520086F,
   0.527325F,
   0.534567F,
   0.541811F,
   0.549054F,
   0.556295F,
   0.563532F,
   0.570763F,
   0.577986F,
   0.585201F,
   0.592403F,
   0.599593F,
   0.606768F,
   0.613927F,
   0.621067F,
   0.628187F,
   0.635285F,
   0.642360F,
   0.649409F,
   0.656431F,
   0.663424F,
   0.670387F,
   0.677317F,
   0.684213F,
   0.691073F,
   0.697896F,
   0.704680F,
   0.711423F,
   0.718124F,
   0.724780F,
   0.731390F,
   0.737953F,
   0.744467F,
   0.750930F,
   0.757341F,
   0.763698F,
   0.770000F,
   0.776245F,
   0.782430F,
   0.788556F,
   0.794620F,
   0.800622F,
   0.806558F,
   0.812428F,
   0.818231F,
   0.823965F,
   0.829628F,
   0.835220F,
   0.840738F,
   0.846182F,
   0.851550F,
   0.856840F,
   0.862052F,
   0.867184F,
   0.872235F,
   0.877204F,
   0.882089F,
   0.886889F,
   0.891603F,
   0.896230F,
   0.900769F,
   0.905218F,
   0.909577F,
   0.913844F,
   0.918018F,
   0.922098F,
   0.926084F,
   0.929974F,
   0.933767F,
   0.937463F,
   0.941060F,
   0.944558F,
   0.947955F,
   0.951251F,
   0.954446F,
   0.957537F,
   0.960525F,
   0.963409F,
   0.966187F,
   0.968860F,
   0.971427F,
   0.973886F,
   0.976238F,
   0.978482F,
   0.980617F,
   0.982643F,
   0.984559F,
   0.986365F,
   0.988060F,
   0.989644F,
   0.991117F,
   0.992478F,
   0.993726F,
   0.994862F,
   0.995885F,
   0.996796F,
   0.997592F,
   0.998276F,
   0.998846F,
   0.999301F,
   0.999644F,
   0.999872F,
   0.999986F,
   1.00000F,
   0.999219F,
   0.996878F,
   0.992981F,
   0.987533F,
   0.980544F,
   0.972023F,
   0.961985F,
   0.950444F,
   0.937420F,
   0.922932F,
   0.907002F,
   0.889657F,
   0.870923F,
   0.850828F,
   0.829406F,
   0.806688F,
   0.782711F,
   0.757511F,
   0.731129F,
   0.703605F,
   0.674983F,
   0.645307F,
   0.614623F,
   0.582980F,
   0.550426F,
   0.517013F,
   0.482792F,
   0.447818F,
   0.412145F,
   0.375828F,
   0.338924F,
   0.301491F,
   0.263587F,
   0.225272F,
   0.186605F,
   0.147647F,
   0.108458F,
   0.0690994F,
   0.0296333F
};


/*
 * LP analysis is performed twice per frame using two different asymmetric windows.
 * The second window has its weight concentrated at the fourth subframe
 * and it consists of two parts:
 * the first part is half a Hamming window and
 * the second part is a quarter of a cosine function cycle.
 */
static const Float32 window_232_8[240] =
{
   0.0800000F,
   0.0800424F,
   0.0801694F,
   0.0803812F,
   0.0806775F,
   0.0810585F,
   0.0815240F,
   0.0820739F,
   0.0827082F,
   0.0834267F,
   0.0842292F,
   0.0851157F,
   0.0860859F,
   0.0871398F,
   0.0882770F,
   0.0894975F,
   0.0908009F,
   0.0921870F,
   0.0936556F,
   0.0952064F,
   0.0968391F,
   0.0985534F,
   0.100349F,
   0.102226F,
   0.104183F,
   0.106220F,
   0.108338F,
   0.110534F,
   0.112810F,
   0.115165F,
   0.117598F,
   0.120108F,
   0.122696F,
   0.125361F,
   0.128102F,
   0.130919F,
   0.133812F,
   0.136779F,
   0.139820F,
   0.142935F,
   0.146123F,
   0.149384F,
   0.152717F,
   0.156121F,
   0.159596F,
   0.163140F,
   0.166754F,
   0.170437F,
   0.174188F,
   0.178007F,
   0.181892F,
   0.185843F,
   0.189859F,
   0.193939F,
   0.198084F,
   0.202291F,
   0.206561F,
   0.210892F,
   0.215283F,
   0.219734F,
   0.224245F,
   0.228813F,
   0.233439F,
   0.238121F,
   0.242859F,
   0.247652F,
   0.252498F,
   0.257397F,
   0.262349F,
   0.267351F,
   0.272404F,
   0.277506F,
   0.282656F,
   0.287854F,
   0.293098F,
   0.298388F,
   0.303722F,
   0.309100F,
   0.314520F,
   0.319981F,
   0.325484F,
   0.331025F,
   0.336606F,
   0.342223F,
   0.347877F,
   0.353567F,
   0.359290F,
   0.365048F,
   0.370837F,
   0.376657F,
   0.382508F,
   0.388387F,
   0.394295F,
   0.400229F,
   0.406189F,
   0.412174F,
   0.418182F,
   0.424213F,
   0.430265F,
   0.436337F,
   0.442428F,
   0.448537F,
   0.454663F,
   0.460805F,
   0.466961F,
   0.473131F,
   0.479313F,
   0.485507F,
   0.491710F,
   0.497922F,
   0.504142F,
   0.510369F,
   0.516601F,
   0.522837F,
   0.529077F,
   0.535318F,
   0.541561F,
   0.547803F,
   0.554043F,
   0.560281F,
   0.566516F,
   0.572745F,
   0.578969F,
   0.585185F,
   0.591393F,
   0.597591F,
   0.603779F,
   0.609955F,
   0.616119F,
   0.622268F,
   0.628402F,
   0.634520F,
   0.640620F,
   0.646702F,
   0.652764F,
   0.658805F,
   0.664825F,
   0.670822F,
   0.676794F,
   0.682741F,
   0.688662F,
   0.694556F,
   0.700421F,
   0.706257F,
   0.712062F,
   0.717835F,
   0.723576F,
   0.729282F,
   0.734954F,
   0.740590F,
   0.746189F,
   0.751750F,
   0.757272F,
   0.762755F,
   0.768196F,
   0.773595F,
   0.778951F,
   0.784263F,
   0.789530F,
   0.794751F,
   0.799925F,
   0.805051F,
   0.810129F,
   0.815156F,
   0.820133F,
   0.825059F,
   0.829932F,
   0.834751F,
   0.839517F,
   0.844227F,
   0.848881F,
   0.853478F,
   0.858018F,
   0.862499F,
   0.866920F,
   0.871282F,
   0.875582F,
   0.879820F,
   0.883996F,
   0.888109F,
   0.892157F,
   0.896141F,
   0.900059F,
   0.903911F,
   0.907696F,
   0.911413F,
   0.915061F,
   0.918641F,
   0.922151F,
   0.925590F,
   0.928958F,
   0.932255F,
   0.935480F,
   0.938632F,
   0.941710F,
   0.944714F,
   0.947644F,
   0.950499F,
   0.953278F,
   0.955981F,
   0.958607F,
   0.961157F,
   0.963628F,
   0.966022F,
   0.968338F,
   0.970574F,
   0.972731F,
   0.974809F,
   0.976806F,
   0.978723F,
   0.980559F,
   0.982314F,
   0.983988F,
   0.985579F,
   0.987089F,
   0.988516F,
   0.989861F,
   0.991123F,
   0.992302F,
   0.993398F,
   0.994410F,
   0.995338F,
   0.996183F,
   0.996943F,
   0.997619F,
   0.998212F,
   0.998719F,
   0.999143F,
   0.999481F,
   0.999735F,
   0.999905F,
   0.999989F,
   1.00000F,
   0.979530F,
   0.918958F,
   0.820763F,
   0.688967F,
   0.528964F,
   0.347305F,
   0.151428F
};

/*
 * LP analysis is performed twice per frame using two different asymmetric windows.
 * The first window has its weight concentrated at the second subframe
 * and it consists of two halves of Hamming windows with different sizes
 */
static const Float32 window_160_80[240] =
{
   0.0800000F,
   0.0800898F,
   0.0803591F,
   0.0808079F,
   0.0814359F,
   0.0822430F,
   0.0832287F,
   0.0843928F,
   0.0857347F,
   0.0872539F,
   0.0889499F,
   0.0908220F,
   0.0928695F,
   0.0950914F,
   0.0974871F,
   0.100056F,
   0.102796F,
   0.105707F,
   0.108787F,
   0.112036F,
   0.115451F,
   0.119033F,
   0.122779F,
   0.126688F,
   0.130758F,
   0.134988F,
   0.139376F,
   0.143920F,
   0.148619F,
   0.153471F,
   0.158473F,
   0.163625F,
   0.168924F,
   0.174367F,
   0.179953F,
   0.185680F,
   0.191545F,
   0.197546F,
   0.203681F,
   0.209947F,
   0.216342F,
   0.222863F,
   0.229508F,
   0.236274F,
   0.243159F,
   0.250160F,
   0.257273F,
   0.264498F,
   0.271829F,
   0.279266F,
   0.286804F,
   0.294441F,
   0.302174F,
   0.310000F,
   0.317916F,
   0.325918F,
   0.334004F,
   0.342170F,
   0.350414F,
   0.358731F,
   0.367119F,
   0.375575F,
   0.384095F,
   0.392676F,
   0.401314F,
   0.410007F,
   0.418750F,
   0.427540F,
   0.436375F,
   0.445250F,
   0.454162F,
   0.463107F,
   0.472083F,
   0.481085F,
   0.490109F,
   0.499154F,
   0.508214F,
   0.517287F,
   0.526369F,
   0.535456F,
   0.544544F,
   0.553631F,
   0.562713F,
   0.571786F,
   0.580846F,
   0.589891F,
   0.598915F,
   0.607917F,
   0.616893F,
   0.625838F,
   0.634750F,
   0.643625F,
   0.652460F,
   0.661250F,
   0.669993F,
   0.678686F,
   0.687324F,
   0.695905F,
   0.704425F,
   0.712881F,
   0.721269F,
   0.729586F,
   0.737830F,
   0.745996F,
   0.754082F,
   0.762084F,
   0.770000F,
   0.777826F,
   0.785559F,
   0.793196F,
   0.800734F,
   0.808171F,
   0.815502F,
   0.822727F,
   0.829840F,
   0.836841F,
   0.843726F,
   0.850492F,
   0.857137F,
   0.863658F,
   0.870053F,
   0.876319F,
   0.882454F,
   0.888455F,
   0.894320F,
   0.900047F,
   0.905633F,
   0.911076F,
   0.916375F,
   0.921527F,
   0.926529F,
   0.931381F,
   0.936080F,
   0.940624F,
   0.945012F,
   0.949242F,
   0.953312F,
   0.957221F,
   0.960967F,
   0.964549F,
   0.967964F,
   0.971213F,
   0.974293F,
   0.977204F,
   0.979944F,
   0.982513F,
   0.984909F,
   0.987131F,
   0.989178F,
   0.991050F,
   0.992746F,
   0.994265F,
   0.995607F,
   0.996771F,
   0.997757F,
   0.998564F,
   0.999192F,
   0.999641F,
   0.999910F,
   1.00000F,
   1.00000F,
   0.999636F,
   0.998546F,
   0.996730F,
   0.994193F,
   0.990937F,
   0.986968F,
   0.982292F,
   0.976917F,
   0.970851F,
   0.964104F,
   0.956687F,
   0.948610F,
   0.939887F,
   0.930532F,
   0.920560F,
   0.909986F,
   0.898826F,
   0.887100F,
   0.874824F,
   0.862019F,
   0.848705F,
   0.834903F,
   0.820635F,
   0.805922F,
   0.790790F,
   0.775260F,
   0.759359F,
   0.743111F,
   0.726542F,
   0.709677F,
   0.692545F,
   0.675171F,
   0.657584F,
   0.639810F,
   0.621879F,
   0.603818F,
   0.585657F,
   0.567423F,
   0.549146F,
   0.530854F,
   0.512577F,
   0.494343F,
   0.476182F,
   0.458121F,
   0.440190F,
   0.422416F,
   0.404829F,
   0.387455F,
   0.370323F,
   0.353458F,
   0.336889F,
   0.320641F,
   0.304740F,
   0.289210F,
   0.274078F,
   0.259365F,
   0.245097F,
   0.231295F,
   0.217981F,
   0.205176F,
   0.192900F,
   0.181174F,
   0.170014F,
   0.159440F,
   0.149468F,
   0.140113F,
   0.131390F,
   0.123313F,
   0.115896F,
   0.109149F,
   0.103083F,
   0.0977077F,
   0.0930321F,
   0.0890632F,
   0.0858073F,
   0.0832696F,
   0.0814541F,
   0.0803637F,
   0.0800000F
};

/* correlation weights	*/
static const Float32 corrweight[251] =
{
   0.624805F,
   0.625813F,
   0.626820F,
   0.627827F,
   0.628834F,
   0.630024F,
   0.631031F,
   0.632221F,
   0.633229F,
   0.634419F,
   0.635426F,
   0.636616F,
   0.637623F,
   0.638813F,
   0.640034F,
   0.641224F,
   0.642415F,
   0.643605F,
   0.644826F,
   0.646016F,
   0.647206F,
   0.648427F,
   0.649617F,
   0.651021F,
   0.652211F,
   0.653615F,
   0.654805F,
   0.656209F,
   0.657430F,
   0.658834F,
   0.660207F,
   0.661611F,
   0.663015F,
   0.664418F,
   0.665822F,
   0.667226F,
   0.668630F,
   0.670217F,
   0.671621F,
   0.673208F,
   0.674612F,
   0.676229F,
   0.677816F,
   0.679434F,
   0.681021F,
   0.682607F,
   0.684225F,
   0.685812F,
   0.687613F,
   0.689230F,
   0.691031F,
   0.692831F,
   0.694632F,
   0.696432F,
   0.698233F,
   0.700034F,
   0.702017F,
   0.703818F,
   0.705832F,
   0.707816F,
   0.709616F,
   0.711814F,
   0.713828F,
   0.715812F,
   0.718009F,
   0.720237F,
   0.722221F,
   0.724631F,
   0.726829F,
   0.729026F,
   0.731437F,
   0.733818F,
   0.736229F,
   0.738609F,
   0.741234F,
   0.743614F,
   0.746208F,
   0.748833F,
   0.751610F,
   0.754234F,
   0.757012F,
   0.760033F,
   0.762810F,
   0.765831F,
   0.768822F,
   0.772027F,
   0.775018F,
   0.778222F,
   0.781610F,
   0.785028F,
   0.788415F,
   0.792016F,
   0.795618F,
   0.799219F,
   0.803034F,
   0.807031F,
   0.811029F,
   0.815027F,
   0.819239F,
   0.823634F,
   0.828028F,
   0.832636F,
   0.837428F,
   0.842219F,
   0.847224F,
   0.852412F,
   0.857814F,
   0.863216F,
   0.869015F,
   0.874813F,
   0.881039F,
   0.887417F,
   0.894040F,
   0.901028F,
   0.908231F,
   0.915616F,
   0.923429F,
   0.931639F,
   0.940214F,
   0.960021F,
   1.00000F,
   1.00000F,
   1.00000F,
   1.00000F,
   1.00000F,
   1.00000F,
   1.00000F,
   0.960021F,
   0.940214F,
   0.931639F,
   0.923429F,
   0.915616F,
   0.908231F,
   0.901028F,
   0.894040F,
   0.887417F,
   0.881039F,
   0.874813F,
   0.869015F,
   0.863216F,
   0.857814F,
   0.852412F,
   0.847224F,
   0.842219F,
   0.837428F,
   0.832636F,
   0.828028F,
   0.823634F,
   0.819239F,
   0.815027F,
   0.811029F,
   0.807031F,
   0.803034F,
   0.799219F,
   0.795618F,
   0.792016F,
   0.788415F,
   0.785028F,
   0.781610F,
   0.778222F,
   0.775018F,
   0.772027F,
   0.768822F,
   0.765831F,
   0.762810F,
   0.760033F,
   0.757012F,
   0.754234F,
   0.751610F,
   0.748833F,
   0.746208F,
   0.743614F,
   0.741234F,
   0.738609F,
   0.736229F,
   0.733818F,
   0.731437F,
   0.729026F,
   0.726829F,
   0.724631F,
   0.722221F,
   0.720237F,
   0.718009F,
   0.715812F,
   0.713828F,
   0.711814F,
   0.709616F,
   0.707816F,
   0.705832F,
   0.703818F,
   0.702017F,
   0.700034F,
   0.698233F,
   0.696432F,
   0.694632F,
   0.692831F,
   0.691031F,
   0.689230F,
   0.687613F,
   0.685812F,
   0.684225F,
   0.682607F,
   0.681021F,
   0.679434F,
   0.677816F,
   0.676229F,
   0.674612F,
   0.673208F,
   0.671621F,
   0.670217F,
   0.668630F,
   0.667226F,
   0.665822F,
   0.664418F,
   0.663015F,
   0.661611F,
   0.660207F,
   0.658834F,
   0.657430F,
   0.656209F,
   0.654805F,
   0.653615F,
   0.652211F,
   0.651021F,
   0.649617F,
   0.648427F,
   0.647206F,
   0.646016F,
   0.644826F,
   0.643605F,
   0.642415F,
   0.641224F,
   0.640034F,
   0.638813F,
   0.637623F,
   0.636616F,
   0.635426F,
   0.634419F,
   0.633229F,
   0.632221F,
   0.631031F,
   0.630024F,
   0.628834F,
   0.627827F,
   0.626820F,
   0.625813F,
   0.624805F,
   0.623615F,
   0.622608F,
   0.621632F,
   0.620624F
};
#endif

const struct
{
   Word8 max_frac_lag; /* lag up to which fractional lags are used */
   Word8 flag3; /* enable 1/3 instead of 1/6 fract. resolution */
   Word8 first_frac; /* first fractional to check */
   Word8 last_frac; /* last fractional to check */
   Word8 delta_int_low; /* integer lag below TO to start search from */
   Word8 delta_int_range; /* integer range around T0 */
   Word8 delta_frc_low; /* fractional below T0 */
   Word8 delta_frc_range; /* fractional range around T0 */
   Word8 pit_min; /* minimum pitch */

} static mode_dep_parm[8] =
{
   /*
    * MR475
    */
   {
      84, 1, - 2, 2, 5, 10, 5, 9, PIT_MIN
   },
   /*
    * MR515
    */
   {
      84, 1, - 2, 2, 5, 10, 5, 9, PIT_MIN
   },
   /*
    * MR59
    */
   {
      84, 1, - 2, 2, 3, 6, 5, 9, PIT_MIN
   },
   /*
    * MR67
    */
   {
      84, 1, - 2, 2, 3, 6, 5, 9, PIT_MIN
   },
   /*
    * MR74
    */
   {
      84, 1, - 2, 2, 3, 6, 5, 9, PIT_MIN
   },
   /*
    * MR795
    */
   {
      84, 1, - 2, 2, 3, 6, 10, 19, PIT_MIN
   },
   /*
    * MR102
    */
   {
      84, 1, - 2, 2, 3, 6, 5, 9, PIT_MIN
   },
   /*
    * MR122
    */
   {
      94, 0, - 3, 3, 3, 6, 5, 9, PIT_MIN_MR122
   }
};

#endif
